digraph Tree {
node [shape=box] ;
0 [label="year <= 2006.5\nmse = 35247755.102\nsamples = 14\nvalue = 6571.429"] ;
1 [label="miles <= 131000.0\nmse = 1232839.506\nsamples = 9\nvalue = 2722.222"] ;
0 -> 1 [labeldistance=2.5, labelangle=45, headlabel="True"] ;
2 [label="miles <= 93000.0\nmse = 250000.0\nsamples = 2\nvalue = 4500.0"] ;
1 -> 2 ;
3 [label="mse = 0.0\nsamples = 1\nvalue = 5000.0"] ;
2 -> 3 ;
4 [label="mse = 0.0\nsamples = 1\nvalue = 4000.0"] ;
2 -> 4 ;
5 [label="year <= 2001.0\nmse = 352653.061\nsamples = 7\nvalue = 2214.286"] ;
1 -> 5 ;
6 [label="mse = 62500.0\nsamples = 2\nvalue = 1550.0"] ;
5 -> 6 ;
7 [label="mse = 221600.0\nsamples = 5\nvalue = 2480.0"] ;
5 -> 7 ;
8 [label="miles <= 21500.0\nmse = 21800000.0\nsamples = 5\nvalue = 13500.0"] ;
0 -> 8 [labeldistance=2.5, labelangle=-45, headlabel="False"] ;
9 [label="mse = 0.0\nsamples = 1\nvalue = 22000.0"] ;
8 -> 9 ;
10 [label="year <= 2009.5\nmse = 4671875.0\nsamples = 4\nvalue = 11375.0"] ;
8 -> 10 ;
11 [label="mse = 62500.0\nsamples = 2\nvalue = 9250.0"] ;
10 -> 11 ;
12 [label="mse = 250000.0\nsamples = 2\nvalue = 13500.0"] ;
10 -> 12 ;
}